<?xml version="1.0" encoding="UTF-8" standalone="yes"?>
<PMML xmlns="http://www.dmg.org/PMML-4_3" xmlns:data="http://jpmml.org/jpmml-model/InlineTable" version="4.4">
	<Header>
		<Application name="SkLearn2PMML package" version="0.91.1"/>
		<Timestamp>2023-03-24T10:13:27Z</Timestamp>
	</Header>
	<MiningBuildTask>
		<Extension name="repr">PMMLPipeline(steps=[('classifier', DecisionTreeClassifier(max_depth=16))])</Extension>
	</MiningBuildTask>
	<DataDictionary>
		<DataField name="type" optype="categorical" dataType="string">
			<Value value="benign"/>
			<Value value="defacement"/>
			<Value value="malware"/>
			<Value value="phishing"/>
		</DataField>
		<DataField name="length_of_url" optype="continuous" dataType="float"/>
		<DataField name="number_of_letters" optype="continuous" dataType="float"/>
		<DataField name="number_of_digits" optype="continuous" dataType="float"/>
		<DataField name="count_of_dotcom" optype="continuous" dataType="float"/>
		<DataField name="count_of_codot" optype="continuous" dataType="float"/>
		<DataField name="count_of_dotnet" optype="continuous" dataType="float"/>
		<DataField name="count_of_forward_slash" optype="continuous" dataType="float"/>
		<DataField name="count_of_upper_case" optype="continuous" dataType="float"/>
		<DataField name="count_of_lower_case" optype="continuous" dataType="float"/>
		<DataField name="count_of_dot" optype="continuous" dataType="float"/>
		<DataField name="count_of_dot_info" optype="continuous" dataType="float"/>
		<DataField name="count_of_https" optype="continuous" dataType="float"/>
		<DataField name="count_of_www_dot" optype="continuous" dataType="float"/>
		<DataField name="count_of_not_alphanumeric" optype="continuous" dataType="float"/>
		<DataField name="count_of_percentage" optype="continuous" dataType="float"/>
		<DataField name="percentage_to_length_ratio" optype="continuous" dataType="float"/>
		<DataField name="forwards_slash_to_length_ratio" optype="continuous" dataType="float"/>
	</DataDictionary>
	<TreeModel functionName="classification" algorithmName="sklearn.tree._classes.DecisionTreeClassifier" missingValueStrategy="nullPrediction">
		<MiningSchema>
			<MiningField name="type" usageType="target"/>
			<MiningField name="count_of_www_dot"/>
			<MiningField name="forwards_slash_to_length_ratio"/>
			<MiningField name="count_of_dot"/>
			<MiningField name="count_of_not_alphanumeric"/>
			<MiningField name="count_of_dotcom"/>
			<MiningField name="number_of_digits"/>
			<MiningField name="number_of_letters"/>
			<MiningField name="length_of_url"/>
			<MiningField name="count_of_lower_case"/>
			<MiningField name="count_of_dotnet"/>
			<MiningField name="count_of_dot_info"/>
			<MiningField name="count_of_codot"/>
			<MiningField name="count_of_upper_case"/>
			<MiningField name="count_of_forward_slash"/>
			<MiningField name="count_of_https"/>
			<MiningField name="count_of_percentage"/>
			<MiningField name="percentage_to_length_ratio"/>
		</MiningSchema>
		<Output>
			<OutputField name="probability(benign)" optype="continuous" dataType="double" feature="probability" value="benign"/>
			<OutputField name="probability(defacement)" optype="continuous" dataType="double" feature="probability" value="defacement"/>
			<OutputField name="probability(malware)" optype="continuous" dataType="double" feature="probability" value="malware"/>
			<OutputField name="probability(phishing)" optype="continuous" dataType="double" feature="probability" value="phishing"/>
		</Output>
		<LocalTransformations>
			<DerivedField name="double(count_of_www_dot)" optype="continuous" dataType="double">
				<FieldRef field="count_of_www_dot"/>
			</DerivedField>
			<DerivedField name="double(forwards_slash_to_length_ratio)" optype="continuous" dataType="double">
				<FieldRef field="forwards_slash_to_length_ratio"/>
			</DerivedField>
			<DerivedField name="double(count_of_dot)" optype="continuous" dataType="double">
				<FieldRef field="count_of_dot"/>
			</DerivedField>
			<DerivedField name="double(count_of_not_alphanumeric)" optype="continuous" dataType="double">
				<FieldRef field="count_of_not_alphanumeric"/>
			</DerivedField>
			<DerivedField name="double(count_of_dotcom)" optype="continuous" dataType="double">
				<FieldRef field="count_of_dotcom"/>
			</DerivedField>
			<DerivedField name="double(number_of_digits)" optype="continuous" dataType="double">
				<FieldRef field="number_of_digits"/>
			</DerivedField>
			<DerivedField name="double(number_of_letters)" optype="continuous" dataType="double">
				<FieldRef field="number_of_letters"/>
			</DerivedField>
			<DerivedField name="double(length_of_url)" optype="continuous" dataType="double">
				<FieldRef field="length_of_url"/>
			</DerivedField>
			<DerivedField name="double(count_of_lower_case)" optype="continuous" dataType="double">
				<FieldRef field="count_of_lower_case"/>
			</DerivedField>
			<DerivedField name="double(count_of_dotnet)" optype="continuous" dataType="double">
				<FieldRef field="count_of_dotnet"/>
			</DerivedField>
			<DerivedField name="double(count_of_dot_info)" optype="continuous" dataType="double">
				<FieldRef field="count_of_dot_info"/>
			</DerivedField>
			<DerivedField name="double(count_of_codot)" optype="continuous" dataType="double">
				<FieldRef field="count_of_codot"/>
			</DerivedField>
			<DerivedField name="double(count_of_upper_case)" optype="continuous" dataType="double">
				<FieldRef field="count_of_upper_case"/>
			</DerivedField>
			<DerivedField name="double(count_of_forward_slash)" optype="continuous" dataType="double">
				<FieldRef field="count_of_forward_slash"/>
			</DerivedField>
			<DerivedField name="double(count_of_https)" optype="continuous" dataType="double">
				<FieldRef field="count_of_https"/>
			</DerivedField>
			<DerivedField name="double(count_of_percentage)" optype="continuous" dataType="double">
				<FieldRef field="count_of_percentage"/>
			</DerivedField>
			<DerivedField name="double(percentage_to_length_ratio)" optype="continuous" dataType="double">
				<FieldRef field="percentage_to_length_ratio"/>
			</DerivedField>
		</LocalTransformations>
		<Node>
			<True/>
			<Node>
				<SimplePredicate field="double(count_of_www_dot)" operator="lessOrEqual" value="0.5"/>
				<Node>
					<SimplePredicate field="double(forwards_slash_to_length_ratio)" operator="lessOrEqual" value="6.784260622225702E-4"/>
					<Node>
						<SimplePredicate field="double(count_of_dot)" operator="lessOrEqual" value="4.5"/>
						<Node>
							<SimplePredicate field="double(count_of_not_alphanumeric)" operator="lessOrEqual" value="2.5"/>
							<Node>
								<SimplePredicate field="double(count_of_dotcom)" operator="lessOrEqual" value="0.5"/>
								<Node>
									<SimplePredicate field="double(number_of_digits)" operator="lessOrEqual" value="1.5"/>
									<Node>
										<SimplePredicate field="double(number_of_letters)" operator="lessOrEqual" value="14.5"/>
										<Node>
											<SimplePredicate field="double(length_of_url)" operator="lessOrEqual" value="16.5"/>
											<Node score="phishing" recordCount="51">
												<SimplePredicate field="double(count_of_lower_case)" operator="lessOrEqual" value="6.5"/>
												<ScoreDistribution value="benign" recordCount="0"/>
												<ScoreDistribution value="defacement" recordCount="0"/>
												<ScoreDistribution value="malware" recordCount="0"/>
												<ScoreDistribution value="phishing" recordCount="51"/>
											</Node>
											<Node>
												<SimplePredicate field="double(count_of_dotnet)" operator="lessOrEqual" value="0.5"/>
												<Node>
													<SimplePredicate field="double(count_of_lower_case)" operator="lessOrEqual" value="13.5"/>
													<Node>
														<SimplePredicate field="double(length_of_url)" operator="lessOrEqual" value="14.5"/>
														<Node>
															<SimplePredicate field="double(count_of_dot)" operator="lessOrEqual" value="1.5"/>
															<Node>
																<SimplePredicate field="double(length_of_url)" operator="lessOrEqual" value="12.5"/>
																<Node>
																	<SimplePredicate field="double(count_of_not_alphanumeric)" operator="lessOrEqual" value="1.5"/>
																	<Node score="phishing" recordCount="70">
																		<SimplePredicate field="double(length_of_url)" operator="lessOrEqual" value="8.5"/>
																		<ScoreDistribution value="benign" recordCount="0"/>
																		<ScoreDistribution value="defacement" recordCount="0"/>
																		<ScoreDistribution value="malware" recordCount="3"/>
																		<ScoreDistribution value="phishing" recordCount="67"/>
																	</Node>
																	<Node score="phishing" recordCount="833">
																		<True/>
																		<ScoreDistribution value="benign" recordCount="0"/>
																		<ScoreDistribution value="defacement" recordCount="0"/>
																		<ScoreDistribution value="malware" recordCount="68"/>
																		<ScoreDistribution value="phishing" recordCount="765"/>
																	</Node>
																</Node>
																<Node score="phishing" recordCount="59">
																	<SimplePredicate field="double(number_of_digits)" operator="lessOrEqual" value="0.5"/>
																	<ScoreDistribution value="benign" recordCount="0"/>
																	<ScoreDistribution value="defacement" recordCount="0"/>
																	<ScoreDistribution value="malware" recordCount="9"/>
																	<ScoreDistribution value="phishing" recordCount="50"/>
																</Node>
																<Node score="phishing" recordCount="2">
																	<True/>
																	<ScoreDistribution value="benign" recordCount="0"/>
																	<ScoreDistribution value="defacement" recordCount="0"/>
																	<ScoreDistribution value="malware" recordCount="0"/>
																	<ScoreDistribution value="phishing" recordCount="2"/>
																</Node>
															</Node>
															<Node>
																<SimplePredicate field="double(count_of_lower_case)" operator="lessOrEqual" value="12.5"/>
																<Node score="phishing" recordCount="305">
																	<SimplePredicate field="double(number_of_digits)" operator="lessOrEqual" value="0.5"/>
																	<ScoreDistribution value="benign" recordCount="0"/>
																	<ScoreDistribution value="defacement" recordCount="0"/>
																	<ScoreDistribution value="malware" recordCount="17"/>
																	<ScoreDistribution value="phishing" recordCount="288"/>
																</Node>
																<Node score="phishing" recordCount="14">
																	<True/>
																	<ScoreDistribution value="benign" recordCount="0"/>
																	<ScoreDistribution value="defacement" recordCount="0"/>
																	<ScoreDistribution value="malware" recordCount="0"/>
																	<ScoreDistribution value="phishing" recordCount="14"/>
																</Node>
															</Node>
															<Node score="phishing" recordCount="252">
																<SimplePredicate field="double(count_of_dot_info)" operator="lessOrEqual" value="0.5"/>
																<ScoreDistribution value="benign" recordCount="0"/>
																<ScoreDistribution value="defacement" recordCount="0"/>
																<ScoreDistribution value="malware" recordCount="19"/>
																<ScoreDistribution value="phishing" recordCount="233"/>
															</Node>
															<Node score="phishing" recordCount="16">
																<True/>
																<ScoreDistribution value="benign" recordCount="0"/>
																<ScoreDistribution value="defacement" recordCount="0"/>
																<ScoreDistribution value="malware" recordCount="2"/>
																<ScoreDistribution value="phishing" recordCount="14"/>
															</Node>
														</Node>
														<Node score="phishing" recordCount="44">
															<SimplePredicate field="double(number_of_letters)" operator="lessOrEqual" value="9.5"/>
															<ScoreDistribution value="benign" recordCount="0"/>
															<ScoreDistribution value="defacement" recordCount="0"/>
															<ScoreDistribution value="malware" recordCount="0"/>
															<ScoreDistribution value="phishing" recordCount="44"/>
														</Node>
														<Node>
															<SimplePredicate field="double(number_of_digits)" operator="lessOrEqual" value="0.5"/>
															<Node score="phishing" recordCount="116">
																<SimplePredicate field="double(length_of_url)" operator="lessOrEqual" value="13.5"/>
																<ScoreDistribution value="benign" recordCount="0"/>
																<ScoreDistribution value="defacement" recordCount="0"/>
																<ScoreDistribution value="malware" recordCount="7"/>
																<ScoreDistribution value="phishing" recordCount="109"/>
															</Node>
															<Node score="phishing" recordCount="79">
																<True/>
																<ScoreDistribution value="benign" recordCount="0"/>
																<ScoreDistribution value="defacement" recordCount="0"/>
																<ScoreDistribution value="malware" recordCount="3"/>
																<ScoreDistribution value="phishing" recordCount="76"/>
															</Node>
														</Node>
														<Node score="phishing" recordCount="7">
															<SimplePredicate field="double(count_of_codot)" operator="lessOrEqual" value="0.5"/>
															<ScoreDistribution value="benign" recordCount="1"/>
															<ScoreDistribution value="defacement" recordCount="0"/>
															<ScoreDistribution value="malware" recordCount="0"/>
															<ScoreDistribution value="phishing" recordCount="6"/>
														</Node>
														<Node score="phishing" recordCount="4">
															<True/>
															<ScoreDistribution value="benign" recordCount="0"/>
															<ScoreDistribution value="defacement" recordCount="0"/>
															<ScoreDistribution value="malware" recordCount="0"/>
															<ScoreDistribution value="phishing" recordCount="4"/>
														</Node>
													</Node>
													<Node>
														<SimplePredicate field="double(count_of_codot)" operator="lessOrEqual" value="0.5"/>
														<Node>
															<SimplePredicate field="double(length_of_url)" operator="lessOrEqual" value="15.5"/>
															<Node>
																<SimplePredicate field="double(number_of_digits)" operator="lessOrEqual" value="0.5"/>
																<Node score="phishing" recordCount="58">
																	<SimplePredicate field="double(count_of_dot)" operator="lessOrEqual" value="1.5"/>
																	<ScoreDistribution value="benign" recordCount="0"/>
																	<ScoreDistribution value="defacement" recordCount="0"/>
																	<ScoreDistribution value="malware" recordCount="5"/>
																	<ScoreDistribution value="phishing" recordCount="53"/>
																</Node>
																<Node score="phishing" recordCount="51">
																	<True/>
																	<ScoreDistribution value="benign" recordCount="1"/>
																	<ScoreDistribution value="defacement" recordCount="0"/>
																	<ScoreDistribution value="malware" recordCount="2"/>
																	<ScoreDistribution value="phishing" recordCount="48"/>
																</Node>
															</Node>
															<Node score="phishing" recordCount="11">
																<True/>
																<ScoreDistribution value="benign" recordCount="0"/>
																<ScoreDistribution value="defacement" recordCount="0"/>
																<ScoreDistribution value="malware" recordCount="0"/>
																<ScoreDistribution value="phishing" recordCount="11"/>
															</Node>
														</Node>
														<Node score="phishing" recordCount="3">
															<SimplePredicate field="double(count_of_dot)" operator="lessOrEqual" value="1.5"/>
															<ScoreDistribution value="benign" recordCount="0"/>
															<ScoreDistribution value="defacement" recordCount="0"/>
															<ScoreDistribution value="malware" recordCount="0"/>
															<ScoreDistribution value="phishing" recordCount="3"/>
														</Node>
														<Node score="phishing" recordCount="8">
															<True/>
															<ScoreDistribution value="benign" recordCount="0"/>
															<ScoreDistribution value="defacement" recordCount="0"/>
															<ScoreDistribution value="malware" recordCount="2"/>
															<ScoreDistribution value="phishing" recordCount="6"/>
														</Node>
													</Node>
													<Node score="phishing" recordCount="40">
														<SimplePredicate field="double(number_of_digits)" operator="lessOrEqual" value="0.5"/>
														<ScoreDistribution value="benign" recordCount="0"/>
														<ScoreDistribution value="defacement" recordCount="0"/>
														<ScoreDistribution value="malware" recordCount="8"/>
														<ScoreDistribution value="phishing" recordCount="32"/>
													</Node>
													<Node score="phishing" recordCount="2">
														<True/>
														<ScoreDistribution value="benign" recordCount="0"/>
														<ScoreDistribution value="defacement" recordCount="0"/>
														<ScoreDistribution value="malware" recordCount="0"/>
														<ScoreDistribution value="phishing" recordCount="2"/>
													</Node>
												</Node>
												<Node>
													<SimplePredicate field="double(count_of_codot)" operator="lessOrEqual" value="0.5"/>
													<Node>
														<SimplePredicate field="double(count_of_dot)" operator="lessOrEqual" value="1.5"/>
														<Node>
															<SimplePredicate field="double(number_of_digits)" operator="lessOrEqual" value="0.5"/>
															<Node>
																<SimplePredicate field="double(count_of_dot_info)" operator="lessOrEqual" value="0.5"/>
																<Node score="phishing" recordCount="240">
																	<SimplePredicate field="double(length_of_url)" operator="lessOrEqual" value="15.5"/>
																	<ScoreDistribution value="benign" recordCount="0"/>
																	<ScoreDistribution value="defacement" recordCount="0"/>
																	<ScoreDistribution value="malware" recordCount="12"/>
																	<ScoreDistribution value="phishing" recordCount="228"/>
																</Node>
																<Node score="phishing" recordCount="39">
																	<True/>
																	<ScoreDistribution value="benign" recordCount="0"/>
																	<ScoreDistribution value="defacement" recordCount="0"/>
																	<ScoreDistribution value="malware" recordCount="2"/>
																	<ScoreDistribution value="phishing" recordCount="37"/>
																</Node>
															</Node>
															<Node score="phishing" recordCount="15">
																<SimplePredicate field="double(length_of_url)" operator="lessOrEqual" value="15.5"/>
																<ScoreDistribution value="benign" recordCount="0"/>
																<ScoreDistribution value="defacement" recordCount="0"/>
																<ScoreDistribution value="malware" recordCount="2"/>
																<ScoreDistribution value="phishing" recordCount="13"/>
															</Node>
															<Node score="phishing" recordCount="2">
																<True/>
																<ScoreDistribution value="benign" recordCount="0"/>
																<ScoreDistribution value="defacement" recordCount="0"/>
																<ScoreDistribution value="malware" recordCount="0"/>
																<ScoreDistribution value="phishing" recordCount="2"/>
															</Node>
														</Node>
														<Node score="phishing" recordCount="5">
															<True/>
															<ScoreDistribution value="benign" recordCount="0"/>
															<ScoreDistribution value="defacement" recordCount="0"/>
															<ScoreDistribution value="malware" recordCount="1"/>
															<ScoreDistribution value="phishing" recordCount="4"/>
														</Node>
													</Node>
													<Node score="phishing" recordCount="52">
														<True/>
														<ScoreDistribution value="benign" recordCount="3"/>
														<ScoreDistribution value="defacement" recordCount="0"/>
														<ScoreDistribution value="malware" recordCount="4"/>
														<ScoreDistribution value="phishing" recordCount="45"/>
													</Node>
												</Node>
												<Node score="phishing" recordCount="33">
													<True/>
													<ScoreDistribution value="benign" recordCount="0"/>
													<ScoreDistribution value="defacement" recordCount="0"/>
													<ScoreDistribution value="malware" recordCount="0"/>
													<ScoreDistribution value="phishing" recordCount="33"/>
												</Node>
											</Node>
											<Node>
												<SimplePredicate field="double(count_of_lower_case)" operator="lessOrEqual" value="12.5"/>
												<Node>
													<SimplePredicate field="double(length_of_url)" operator="lessOrEqual" value="11.5"/>
													<Node>
														<SimplePredicate field="double(number_of_letters)" operator="lessOrEqual" value="9.5"/>
														<Node>
															<SimplePredicate field="double(length_of_url)" operator="lessOrEqual" value="9.5"/>
															<Node score="phishing" recordCount="1">
																<SimplePredicate field="double(count_of_lower_case)" operator="lessOrEqual" value="7.5"/>
																<ScoreDistribution value="benign" recordCount="0"/>
																<ScoreDistribution value="defacement" recordCount="0"/>
																<ScoreDistribution value="malware" recordCount="0"/>
																<ScoreDistribution value="phishing" recordCount="1"/>
															</Node>
															<Node score="phishing" recordCount="14">
																<True/>
																<ScoreDistribution value="benign" recordCount="0"/>
																<ScoreDistribution value="defacement" recordCount="0"/>
																<ScoreDistribution value="malware" recordCount="1"/>
																<ScoreDistribution value="phishing" recordCount="13"/>
															</Node>
														</Node>
														<Node score="phishing" recordCount="16">
															<True/>
															<ScoreDistribution value="benign" recordCount="0"/>
															<ScoreDistribution value="defacement" recordCount="0"/>
															<ScoreDistribution value="malware" recordCount="0"/>
															<ScoreDistribution value="phishing" recordCount="16"/>
														</Node>
													</Node>
													<Node score="phishing" recordCount="27">
														<True/>
														<ScoreDistribution value="benign" recordCount="0"/>
														<ScoreDistribution value="defacement" recordCount="0"/>
														<ScoreDistribution value="malware" recordCount="2"/>
														<ScoreDistribution value="phishing" recordCount="25"/>
													</Node>
												</Node>
												<Node score="phishing" recordCount="40">
													<SimplePredicate field="double(number_of_letters)" operator="lessOrEqual" value="11.5"/>
													<ScoreDistribution value="benign" recordCount="0"/>
													<ScoreDistribution value="defacement" recordCount="0"/>
													<ScoreDistribution value="malware" recordCount="0"/>
													<ScoreDistribution value="phishing" recordCount="40"/>
												</Node>
												<Node score="phishing" recordCount="32">
													<SimplePredicate field="double(length_of_url)" operator="lessOrEqual" value="13.5"/>
													<ScoreDistribution value="benign" recordCount="0"/>
													<ScoreDistribution value="defacement" recordCount="0"/>
													<ScoreDistribution value="malware" recordCount="1"/>
													<ScoreDistribution value="phishing" recordCount="31"/>
												</Node>
												<Node score="phishing" recordCount="8">
													<True/>
													<ScoreDistribution value="benign" recordCount="0"/>
													<ScoreDistribution value="defacement" recordCount="0"/>
													<ScoreDistribution value="malware" recordCount="0"/>
													<ScoreDistribution value="phishing" recordCount="8"/>
												</Node>
											</Node>
											<Node>
												<SimplePredicate field="double(number_of_digits)" operator="lessOrEqual" value="0.5"/>
												<Node score="phishing" recordCount="47">
													<SimplePredicate field="double(length_of_url)" operator="lessOrEqual" value="14.5"/>
													<ScoreDistribution value="benign" recordCount="0"/>
													<ScoreDistribution value="defacement" recordCount="0"/>
													<ScoreDistribution value="malware" recordCount="4"/>
													<ScoreDistribution value="phishing" recordCount="43"/>
												</Node>
												<Node score="phishing" recordCount="43">
													<SimplePredicate field="double(count_of_not_alphanumeric)" operator="lessOrEqual" value="1.5"/>
													<ScoreDistribution value="benign" recordCount="0"/>
													<ScoreDistribution value="defacement" recordCount="0"/>
													<ScoreDistribution value="malware" recordCount="2"/>
													<ScoreDistribution value="phishing" recordCount="41"/>
												</Node>
												<Node score="phishing" recordCount="15">
													<True/>
													<ScoreDistribution value="benign" recordCount="0"/>
													<ScoreDistribution value="defacement" recordCount="0"/>
													<ScoreDistribution value="malware" recordCount="0"/>
													<ScoreDistribution value="phishing" recordCount="15"/>
												</Node>
											</Node>
											<Node score="phishing" recordCount="1">
												<SimplePredicate field="double(count_of_dot)" operator="lessOrEqual" value="1.5"/>
												<ScoreDistribution value="benign" recordCount="0"/>
												<ScoreDistribution value="defacement" recordCount="0"/>
												<ScoreDistribution value="malware" recordCount="0"/>
												<ScoreDistribution value="phishing" recordCount="1"/>
											</Node>
											<Node score="malware" recordCount="2">
												<True/>
												<ScoreDistribution value="benign" recordCount="0"/>
												<ScoreDistribution value="defacement" recordCount="0"/>
												<ScoreDistribution value="malware" recordCount="1"/>
												<ScoreDistribution value="phishing" recordCount="1"/>
											</Node>
										</Node>
										<Node score="phishing" recordCount="5">
											<SimplePredicate field="double(count_of_codot)" operator="lessOrEqual" value="0.5"/>
											<ScoreDistribution value="benign" recordCount="1"/>
											<ScoreDistribution value="defacement" recordCount="0"/>
											<ScoreDistribution value="malware" recordCount="1"/>
											<ScoreDistribution value="phishing" recordCount="3"/>
										</Node>
										<Node score="phishing" recordCount="1">
											<True/>
											<ScoreDistribution value="benign" recordCount="0"/>
											<ScoreDistribution value="defacement" recordCount="0"/>
											<ScoreDistribution value="malware" recordCount="0"/>
											<ScoreDistribution value="phishing" recordCount="1"/>
										</Node>
									</Node>
									<Node>
										<SimplePredicate field="double(count_of_dotnet)" operator="lessOrEqual" value="1.5"/>
										<Node>
											<SimplePredicate field="double(number_of_letters)" operator="lessOrEqual" value="27.5"/>
											<Node>
												<SimplePredicate field="double(count_of_lower_case)" operator="lessOrEqual" value="20.5"/>
												<Node>
													<SimplePredicate field="double(count_of_dot)" operator="lessOrEqual" value="1.5"/>
													<Node>
														<SimplePredicate field="double(count_of_dot_info)" operator="lessOrEqual" value="0.5"/>
														<Node>
															<SimplePredicate field="double(number_of_digits)" operator="lessOrEqual" value="0.5"/>
															<Node>
																<SimplePredicate field="double(count_of_lower_case)" operator="lessOrEqual" value="17.5"/>
																<Node>
																	<SimplePredicate field="double(length_of_url)" operator="lessOrEqual" value="18.5"/>
																	<Node score="phishing" recordCount="491">
																		<SimplePredicate field="double(number_of_letters)" operator="lessOrEqual" value="16.5"/>
																		<ScoreDistribution value="benign" recordCount="0"/>
																		<ScoreDistribution value="defacement" recordCount="0"/>
																		<ScoreDistribution value="malware" recordCount="23"/>
																		<ScoreDistribution value="phishing" recordCount="468"/>
																	</Node>
																	<Node score="phishing" recordCount="151">
																		<True/>
																		<ScoreDistribution value="benign" recordCount="0"/>
																		<ScoreDistribution value="defacement" recordCount="0"/>
																		<ScoreDistribution value="malware" recordCount="10"/>
																		<ScoreDistribution value="phishing" recordCount="141"/>
																	</Node>
																</Node>
																<Node score="phishing" recordCount="32">
																	<SimplePredicate field="double(count_of_dotnet)" operator="lessOrEqual" value="0.5"/>
																	<ScoreDistribution value="benign" recordCount="0"/>
																	<ScoreDistribution value="defacement" recordCount="0"/>
																	<ScoreDistribution value="malware" recordCount="4"/>
																	<ScoreDistribution value="phishing" recordCount="28"/>
																</Node>
																<Node score="phishing" recordCount="5">
																	<True/>
																	<ScoreDistribution value="benign" recordCount="0"/>
																	<ScoreDistribution value="defacement" recordCount="0"/>
																	<ScoreDistribution value="malware" recordCount="0"/>
																	<ScoreDistribution value="phishing" recordCount="5"/>
																</Node>
															</Node>
															<Node>
																<SimplePredicate field="double(count_of_dotnet)" operator="lessOrEqual" value="0.5"/>
																<Node score="phishing" recordCount="320">
																	<SimplePredicate field="double(length_of_url)" operator="lessOrEqual" value="21.5"/>
																	<ScoreDistribution value="benign" recordCount="0"/>
																	<ScoreDistribution value="defacement" recordCount="0"/>
																	<ScoreDistribution value="malware" recordCount="10"/>
																	<ScoreDistribution value="phishing" recordCount="310"/>
																</Node>
																<Node score="phishing" recordCount="25">
																	<True/>
																	<ScoreDistribution value="benign" recordCount="0"/>
																	<ScoreDistribution value="defacement" recordCount="0"/>
																	<ScoreDistribution value="malware" recordCount="0"/>
																	<ScoreDistribution value="phishing" recordCount="25"/>
																</Node>
															</Node>
															<Node score="phishing" recordCount="46">
																<SimplePredicate field="double(length_of_url)" operator="lessOrEqual" value="21.5"/>
																<ScoreDistribution value="benign" recordCount="0"/>
																<ScoreDistribution value="defacement" recordCount="0"/>
																<ScoreDistribution value="malware" recordCount="3"/>
																<ScoreDistribution value="phishing" recordCount="43"/>
															</Node>
															<Node score="phishing" recordCount="4">
																<True/>
																<ScoreDistribution value="benign" recordCount="0"/>
																<ScoreDistribution value="defacement" recordCount="0"/>
																<ScoreDistribution value="malware" recordCount="1"/>
																<ScoreDistribution value="phishing" recordCount="3"/>
															</Node>
														</Node>
														<Node>
															<SimplePredicate field="double(count_of_not_alphanumeric)" operator="lessOrEqual" value="1.5"/>
															<Node>
																<SimplePredicate field="double(count_of_lower_case)" operator="lessOrEqual" value="17.5"/>
																<Node score="phishing" recordCount="5">
																	<SimplePredicate field="double(length_of_url)" operator="lessOrEqual" value="18.5"/>
																	<ScoreDistribution value="benign" recordCount="0"/>
																	<ScoreDistribution value="defacement" recordCount="0"/>
																	<ScoreDistribution value="malware" recordCount="0"/>
																	<ScoreDistribution value="phishing" recordCount="5"/>
																</Node>
																<Node score="phishing" recordCount="10">
																	<True/>
																	<ScoreDistribution value="benign" recordCount="0"/>
																	<ScoreDistribution value="defacement" recordCount="0"/>
																	<ScoreDistribution value="malware" recordCount="1"/>
																	<ScoreDistribution value="phishing" recordCount="9"/>
																</Node>
															</Node>
															<Node score="malware" recordCount="2">
																<SimplePredicate field="double(number_of_letters)" operator="lessOrEqual" value="18.5"/>
																<ScoreDistribution value="benign" recordCount="0"/>
																<ScoreDistribution value="defacement" recordCount="0"/>
																<ScoreDistribution value="malware" recordCount="1"/>
																<ScoreDistribution value="phishing" recordCount="1"/>
															</Node>
															<Node score="malware" recordCount="2">
																<True/>
																<ScoreDistribution value="benign" recordCount="0"/>
																<ScoreDistribution value="defacement" recordCount="0"/>
																<ScoreDistribution value="malware" recordCount="1"/>
																<ScoreDistribution value="phishing" recordCount="1"/>
															</Node>
														</Node>
														<Node score="phishing" recordCount="11">
															<True/>
															<ScoreDistribution value="benign" recordCount="0"/>
															<ScoreDistribution value="defacement" recordCount="0"/>
															<ScoreDistribution value="malware" recordCount="0"/>
															<ScoreDistribution value="phishing" recordCount="11"/>
														</Node>
													</Node>
													<Node score="phishing" recordCount="95">
														<True/>
														<ScoreDistribution value="benign" recordCount="0"/>
														<ScoreDistribution value="defacement" recordCount="0"/>
														<ScoreDistribution value="malware" recordCount="0"/>
														<ScoreDistribution value="phishing" recordCount="95"/>
													</Node>
												</Node>
												<Node>
													<SimplePredicate field="double(count_of_dot_info)" operator="lessOrEqual" value="0.5"/>
													<Node>
														<SimplePredicate field="double(length_of_url)" operator="lessOrEqual" value="18.5"/>
														<Node>
															<SimplePredicate field="double(count_of_dotnet)" operator="lessOrEqual" value="0.5"/>
															<Node>
																<SimplePredicate field="double(length_of_url)" operator="lessOrEqual" value="17.5"/>
																<Node score="phishing" recordCount="56">
																	<SimplePredicate field="double(count_of_codot)" operator="lessOrEqual" value="0.5"/>
																	<ScoreDistribution value="benign" recordCount="2"/>
																	<ScoreDistribution value="defacement" recordCount="0"/>
																	<ScoreDistribution value="malware" recordCount="1"/>
																	<ScoreDistribution value="phishing" recordCount="53"/>
																</Node>
																<Node score="phishing" recordCount="34">
																	<True/>
																	<ScoreDistribution value="benign" recordCount="0"/>
																	<ScoreDistribution value="defacement" recordCount="0"/>
																	<ScoreDistribution value="malware" recordCount="2"/>
																	<ScoreDistribution value="phishing" recordCount="32"/>
																</Node>
															</Node>
															<Node score="phishing" recordCount="4">
																<SimplePredicate field="double(number_of_letters)" operator="lessOrEqual" value="15.5"/>
																<ScoreDistribution value="benign" recordCount="0"/>
																<ScoreDistribution value="defacement" recordCount="0"/>
																<ScoreDistribution value="malware" recordCount="0"/>
																<ScoreDistribution value="phishing" recordCount="4"/>
															</Node>
															<Node score="phishing" recordCount="89">
																<True/>
																<ScoreDistribution value="benign" recordCount="0"/>
																<ScoreDistribution value="defacement" recordCount="0"/>
																<ScoreDistribution value="malware" recordCount="4"/>
																<ScoreDistribution value="phishing" recordCount="85"/>
															</Node>
														</Node>
														<Node score="phishing" recordCount="14">
															<True/>
															<ScoreDistribution value="benign" recordCount="0"/>
															<ScoreDistribution value="defacement" recordCount="0"/>
															<ScoreDistribution value="malware" recordCount="0"/>
															<ScoreDistribution value="phishing" recordCount="14"/>
														</Node>
													</Node>
													<Node>
														<SimplePredicate field="double(count_of_lower_case)" operator="lessOrEqual" value="17.5"/>
														<Node>
															<SimplePredicate field="double(count_of_codot)" operator="lessOrEqual" value="0.5"/>
															<Node score="phishing" recordCount="125">
																<SimplePredicate field="double(number_of_digits)" operator="lessOrEqual" value="0.5"/>
																<ScoreDistribution value="benign" recordCount="0"/>
																<ScoreDistribution value="defacement" recordCount="0"/>
																<ScoreDistribution value="malware" recordCount="1"/>
																<ScoreDistribution value="phishing" recordCount="124"/>
															</Node>
															<Node score="phishing" recordCount="70">
																<True/>
																<ScoreDistribution value="benign" recordCount="0"/>
																<ScoreDistribution value="defacement" recordCount="0"/>
																<ScoreDistribution value="malware" recordCount="0"/>
																<ScoreDistribution value="phishing" recordCount="70"/>
															</Node>
														</Node>
														<Node score="phishing" recordCount="50">
															<SimplePredicate field="double(number_of_digits)" operator="lessOrEqual" value="0.5"/>
															<ScoreDistribution value="benign" recordCount="0"/>
															<ScoreDistribution value="defacement" recordCount="0"/>
															<ScoreDistribution value="malware" recordCount="1"/>
															<ScoreDistribution value="phishing" recordCount="49"/>
														</Node>
														<Node score="phishing" recordCount="1">
															<True/>
															<ScoreDistribution value="benign" recordCount="0"/>
															<ScoreDistribution value="defacement" recordCount="0"/>
															<ScoreDistribution value="malware" recordCount="0"/>
															<ScoreDistribution value="phishing" recordCount="1"/>
														</Node>
													</Node>
													<Node>
														<SimplePredicate field="double(length_of_url)" operator="lessOrEqual" value="21.5"/>
														<Node score="phishing" recordCount="99">
															<SimplePredicate field="double(count_of_codot)" operator="lessOrEqual" value="0.5"/>
															<ScoreDistribution value="benign" recordCount="1"/>
															<ScoreDistribution value="defacement" recordCount="0"/>
															<ScoreDistribution value="malware" recordCount="5"/>
															<ScoreDistribution value="phishing" recordCount="93"/>
														</Node>
														<Node score="phishing" recordCount="67">
															<True/>
															<ScoreDistribution value="benign" recordCount="0"/>
															<ScoreDistribution value="defacement" recordCount="0"/>
															<ScoreDistribution value="malware" recordCount="1"/>
															<ScoreDistribution value="phishing" recordCount="66"/>
														</Node>
													</Node>
													<Node score="phishing" recordCount="79">
														<SimplePredicate field="double(count_of_dotnet)" operator="lessOrEqual" value="0.5"/>
														<ScoreDistribution value="benign" recordCount="0"/>
														<ScoreDistribution value="defacement" recordCount="0"/>
														<ScoreDistribution value="malware" recordCount="0"/>
														<ScoreDistribution value="phishing" recordCount="79"/>
													</Node>
													<Node score="phishing" recordCount="10">
														<True/>
														<ScoreDistribution value="benign" recordCount="1"/>
														<ScoreDistribution value="defacement" recordCount="0"/>
														<ScoreDistribution value="malware" recordCount="0"/>
														<ScoreDistribution value="phishing" recordCount="9"/>
													</Node>
												</Node>
												<Node>
													<SimplePredicate field="double(length_of_url)" operator="lessOrEqual" value="19.5"/>
													<Node score="phishing" recordCount="2">
														<SimplePredicate field="double(number_of_letters)" operator="lessOrEqual" value="16.0"/>
														<ScoreDistribution value="benign" recordCount="0"/>
														<ScoreDistribution value="defacement" recordCount="0"/>
														<ScoreDistribution value="malware" recordCount="0"/>
														<ScoreDistribution value="phishing" recordCount="2"/>
													</Node>
													<Node score="benign" recordCount="2">
														<True/>
														<ScoreDistribution value="benign" recordCount="1"/>
														<ScoreDistribution value="defacement" recordCount="0"/>
														<ScoreDistribution value="malware" recordCount="0"/>
														<ScoreDistribution value="phishing" recordCount="1"/>
													</Node>
												</Node>
												<Node score="phishing" recordCount="3">
													<True/>
													<ScoreDistribution value="benign" recordCount="0"/>
													<ScoreDistribution value="defacement" recordCount="0"/>
													<ScoreDistribution value="malware" recordCount="0"/>
													<ScoreDistribution value="phishing" recordCount="3"/>
												</Node>
											</Node>
											<Node>
												<SimplePredicate field="double(number_of_digits)" operator="lessOrEqual" value="0.5"/>
												<Node>
													<SimplePredicate field="double(count_of_dot)" operator="lessOrEqual" value="1.5"/>
													<Node>
														<SimplePredicate field="double(count_of_dot_info)" operator="lessOrEqual" value="0.5"/>
														<Node>
															<SimplePredicate field="double(count_of_not_alphanumeric)" operator="lessOrEqual" value="1.5"/>
															<Node>
																<SimplePredicate field="double(count_of_lower_case)" operator="lessOrEqual" value="24.5"/>
																<Node score="phishing" recordCount="79">
																	<SimplePredicate field="double(count_of_lower_case)" operator="lessOrEqual" value="21.5"/>
																	<ScoreDistribution value="benign" recordCount="0"/>
																	<ScoreDistribution value="defacement" recordCount="0"/>
																	<ScoreDistribution value="malware" recordCount="5"/>
																	<ScoreDistribution value="phishing" recordCount="74"/>
																</Node>
																<Node score="phishing" recordCount="129">
																	<True/>
																	<ScoreDistribution value="benign" recordCount="0"/>
																	<ScoreDistribution value="defacement" recordCount="0"/>
																	<ScoreDistribution value="malware" recordCount="3"/>
																	<ScoreDistribution value="phishing" recordCount="126"/>
																</Node>
															</Node>
															<Node score="phishing" recordCount="37">
																<SimplePredicate field="double(count_of_dotnet)" operator="lessOrEqual" value="0.5"/>
																<ScoreDistribution value="benign" recordCount="0"/>
																<ScoreDistribution value="defacement" recordCount="0"/>
																<ScoreDistribution value="malware" recordCount="4"/>
																<ScoreDistribution value="phishing" recordCount="33"/>
															</Node>
															<Node score="phishing" recordCount="7">
																<True/>
																<ScoreDistribution value="benign" recordCount="0"/>
																<ScoreDistribution value="defacement" recordCount="0"/>
																<ScoreDistribution value="malware" recordCount="0"/>
																<ScoreDistribution value="phishing" recordCount="7"/>
															</Node>
														</Node>
														<Node score="phishing" recordCount="86">
															<True/>
															<ScoreDistribution value="benign" recordCount="0"/>
															<ScoreDistribution value="defacement" recordCount="0"/>
															<ScoreDistribution value="malware" recordCount="0"/>
															<ScoreDistribution value="phishing" recordCount="86"/>
														</Node>
													</Node>
													<Node>
														<SimplePredicate field="double(length_of_url)" operator="lessOrEqual" value="24.5"/>
														<Node>
															<SimplePredicate field="double(count_of_not_alphanumeric)" operator="lessOrEqual" value="1.5"/>
															<Node score="phishing" recordCount="11">
																<SimplePredicate field="double(number_of_letters)" operator="lessOrEqual" value="22.5"/>
																<ScoreDistribution value="benign" recordCount="0"/>
																<ScoreDistribution value="defacement" recordCount="0"/>
																<ScoreDistribution value="malware" recordCount="0"/>
																<ScoreDistribution value="phishing" recordCount="11"/>
															</Node>
															<Node score="phishing" recordCount="4">
																<True/>
																<ScoreDistribution value="benign" recordCount="0"/>
																<ScoreDistribution value="defacement" recordCount="0"/>
																<ScoreDistribution value="malware" recordCount="1"/>
																<ScoreDistribution value="phishing" recordCount="3"/>
															</Node>
														</Node>
														<Node score="phishing" recordCount="3">
															<SimplePredicate field="double(length_of_url)" operator="lessOrEqual" value="23.5"/>
															<ScoreDistribution value="benign" recordCount="0"/>
															<ScoreDistribution value="defacement" recordCount="0"/>
															<ScoreDistribution value="malware" recordCount="1"/>
															<ScoreDistribution value="phishing" recordCount="2"/>
														</Node>
														<Node score="malware" recordCount="2">
															<True/>
															<ScoreDistribution value="benign" recordCount="0"/>
															<ScoreDistribution value="defacement" recordCount="0"/>
															<ScoreDistribution value="malware" recordCount="1"/>
															<ScoreDistribution value="phishing" recordCount="1"/>
														</Node>
													</Node>
													<Node score="phishing" recordCount="12">
														<True/>
														<ScoreDistribution value="benign" recordCount="0"/>
														<ScoreDistribution value="defacement" recordCount="0"/>
														<ScoreDistribution value="malware" recordCount="0"/>
														<ScoreDistribution value="phishing" recordCount="12"/>
													</Node>
												</Node>
												<Node>
													<SimplePredicate field="double(count_of_codot)" operator="lessOrEqual" value="0.5"/>
													<Node>
														<SimplePredicate field="double(count_of_lower_case)" operator="lessOrEqual" value="21.5"/>
														<Node>
															<SimplePredicate field="double(count_of_dot_info)" operator="lessOrEqual" value="0.5"/>
															<Node score="phishing" recordCount="32">
																<SimplePredicate field="double(count_of_dotnet)" operator="lessOrEqual" value="0.5"/>
																<ScoreDistribution value="benign" recordCount="1"/>
																<ScoreDistribution value="defacement" recordCount="0"/>
																<ScoreDistribution value="malware" recordCount="4"/>
																<ScoreDistribution value="phishing" recordCount="27"/>
															</Node>
															<Node score="phishing" recordCount="7">
																<True/>
																<ScoreDistribution value="benign" recordCount="0"/>
																<ScoreDistribution value="defacement" recordCount="0"/>
																<ScoreDistribution value="malware" recordCount="1"/>
																<ScoreDistribution value="phishing" recordCount="6"/>
															</Node>
														</Node>
														<Node score="phishing" recordCount="2">
															<True/>
															<ScoreDistribution value="benign" recordCount="0"/>
															<ScoreDistribution value="defacement" recordCount="0"/>
															<ScoreDistribution value="malware" recordCount="0"/>
															<ScoreDistribution value="phishing" recordCount="2"/>
														</Node>
													</Node>
													<Node>
														<SimplePredicate field="double(count_of_dotnet)" operator="lessOrEqual" value="0.5"/>
														<Node score="phishing" recordCount="104">
															<SimplePredicate field="double(count_of_lower_case)" operator="lessOrEqual" value="26.5"/>
															<ScoreDistribution value="benign" recordCount="1"/>
															<ScoreDistribution value="defacement" recordCount="0"/>
															<ScoreDistribution value="malware" recordCount="5"/>
															<ScoreDistribution value="phishing" recordCount="98"/>
														</Node>
														<Node score="phishing" recordCount="5">
															<True/>
															<ScoreDistribution value="benign" recordCount="0"/>
															<ScoreDistribution value="defacement" recordCount="0"/>
															<ScoreDistribution value="malware" recordCount="1"/>
															<ScoreDistribution value="phishing" recordCount="4"/>
														</Node>
													</Node>
													<Node score="phishing" recordCount="4">
														<SimplePredicate field="double(number_of_letters)" operator="lessOrEqual" value="22.5"/>
														<ScoreDistribution value="benign" recordCount="0"/>
														<ScoreDistribution value="defacement" recordCount="0"/>
														<ScoreDistribution value="malware" recordCount="1"/>
														<ScoreDistribution value="phishing" recordCount="3"/>
													</Node>
													<Node score="phishing" recordCount="20">
														<True/>
														<ScoreDistribution value="benign" recordCount="1"/>
														<ScoreDistribution value="defacement" recordCount="0"/>
														<ScoreDistribution value="malware" recordCount="1"/>
														<ScoreDistribution value="phishing" recordCount="18"/>
													</Node>
												</Node>
												<Node score="phishing" recordCount="39">
													<SimplePredicate field="double(length_of_url)" operator="lessOrEqual" value="24.5"/>
													<ScoreDistribution value="benign" recordCount="0"/>
													<ScoreDistribution value="defacement" recordCount="0"/>
													<ScoreDistribution value="malware" recordCount="0"/>
													<ScoreDistribution value="phishing" recordCount="39"/>
												</Node>
												<Node>
													<SimplePredicate field="double(number_of_letters)" operator="lessOrEqual" value="25.5"/>
													<Node score="phishing" recordCount="14">
														<SimplePredicate field="double(count_of_lower_case)" operator="lessOrEqual" value="23.5"/>
														<ScoreDistribution value="benign" recordCount="0"/>
														<ScoreDistribution value="defacement" recordCount="0"/>
														<ScoreDistribution value="malware" recordCount="1"/>
														<ScoreDistribution value="phishing" recordCount="13"/>
													</Node>
													<Node score="phishing" recordCount="20">
														<True/>
														<ScoreDistribution value="benign" recordCount="0"/>
														<ScoreDistribution value="defacement" recordCount="0"/>
														<ScoreDistribution value="malware" recordCount="1"/>
														<ScoreDistribution value="phishing" recordCount="19"/>
													</Node>
												</Node>
												<Node score="phishing" recordCount="6">
													<True/>
													<ScoreDistribution value="benign" recordCount="0"/>
													<ScoreDistribution value="defacement" recordCount="0"/>
													<ScoreDistribution value="malware" recordCount="0"/>
													<ScoreDistribution value="phishing" recordCount="6"/>
												</Node>
											</Node>
											<Node>
												<SimplePredicate field="double(count_of_not_alphanumeric)" operator="lessOrEqual" value="1.5"/>
												<Node>
													<SimplePredicate field="double(count_of_lower_case)" operator="lessOrEqual" value="25.0"/>
													<Node score="phishing" recordCount="1">
														<SimplePredicate field="double(number_of_letters)" operator="lessOrEqual" value="22.0"/>
														<ScoreDistribution value="benign" recordCount="0"/>
														<ScoreDistribution value="defacement" recordCount="0"/>
														<ScoreDistribution value="malware" recordCount="0"/>
														<ScoreDistribution value="phishing" recordCount="1"/>
													</Node>
													<Node>
														<SimplePredicate field="double(count_of_dot_info)" operator="lessOrEqual" value="0.5"/>
														<Node score="phishing" recordCount="3">
															<SimplePredicate field="double(count_of_lower_case)" operator="lessOrEqual" value="23.5"/>
															<ScoreDistribution value="benign" recordCount="0"/>
															<ScoreDistribution value="defacement" recordCount="0"/>
															<ScoreDistribution value="malware" recordCount="1"/>
															<ScoreDistribution value="phishing" recordCount="2"/>
														</Node>
														<Node score="malware" recordCount="1">
															<True/>
															<ScoreDistribution value="benign" recordCount="0"/>
															<ScoreDistribution value="defacement" recordCount="0"/>
															<ScoreDistribution value="malware" recordCount="1"/>
															<ScoreDistribution value="phishing" recordCount="0"/>
														</Node>
													</Node>
													<Node score="phishing" recordCount="1">
														<True/>
														<ScoreDistribution value="benign" recordCount="0"/>
														<ScoreDistribution value="defacement" recordCount="0"/>
														<ScoreDistribution value="malware" recordCount="0"/>
														<ScoreDistribution value="phishing" recordCount="1"/>
													</Node>
												</Node>
												<Node score="malware" recordCount="1">
													<True/>
													<ScoreDistribution value="benign" recordCount="0"/>
													<ScoreDistribution value="defacement" recordCount="0"/>
													<ScoreDistribution value="malware" recordCount="1"/>
													<ScoreDistribution value="phishing" recordCount="0"/>
												</Node>
											</Node>
											<Node score="phishing" recordCount="14">
												<SimplePredicate field="double(length_of_url)" operator="lessOrEqual" value="28.5"/>
												<ScoreDistribution value="benign" recordCount="0"/>
												<ScoreDistribution value="defacement" recordCount="0"/>
												<ScoreDistribution value="malware" recordCount="0"/>
												<ScoreDistribution value="phishing" recordCount="14"/>
											</Node>
											<Node score="benign" recordCount="1">
												<SimplePredicate field="double(number_of_letters)" operator="lessOrEqual" value="26.5"/>
												<ScoreDistribution value="benign" recordCount="1"/>
												<ScoreDistribution value="defacement" recordCount="0"/>
												<ScoreDistribution value="malware" recordCount="0"/>
												<ScoreDistribution value="phishing" recordCount="0"/>
											</Node>
											<Node score="phishing" recordCount="5">
												<True/>
												<ScoreDistribution value="benign" recordCount="0"/>
												<ScoreDistribution value="defacement" recordCount="0"/>
												<ScoreDistribution value="malware" recordCount="0"/>
												<ScoreDistribution value="phishing" recordCount="5"/>
											</Node>
										</Node>
										<Node score="phishing" recordCount="104">
											<SimplePredicate field="double(count_of_dotnet)" operator="lessOrEqual" value="0.5"/>
											<ScoreDistribution value="benign" recordCount="0"/>
											<ScoreDistribution value="defacement" recordCount="0"/>
											<ScoreDistribution value="malware" recordCount="0"/>
											<ScoreDistribution value="phishing" recordCount="104"/>
										</Node>
										<Node score="phishing" recordCount="11">
											<SimplePredicate field="double(number_of_letters)" operator="lessOrEqual" value="35.0"/>
											<ScoreDistribution value="benign" recordCount="0"/>
											<ScoreDistribution value="defacement" recordCount="0"/>
											<ScoreDistribution value="malware" recordCount="0"/>
											<ScoreDistribution value="phishing" recordCount="11"/>
										</Node>
										<Node score="phishing" recordCount="3">
											<SimplePredicate field="double(number_of_letters)" operator="lessOrEqual" value="36.5"/>
											<ScoreDistribution value="benign" recordCount="0"/>
											<ScoreDistribution value="defacement" recordCount="0"/>
											<ScoreDistribution value="malware" recordCount="1"/>
											<ScoreDistribution value="phishing" recordCount="2"/>
										</Node>
										<Node score="phishing" recordCount="4">
											<True/>
											<ScoreDistribution value="benign" recordCount="0"/>
											<ScoreDistribution value="defacement" recordCount="0"/>
											<ScoreDistribution value="malware" recordCount="0"/>
											<ScoreDistribution value="phishing" recordCount="4"/>
										</Node>
									</Node>
									<Node score="phishing" recordCount="5">
										<SimplePredicate field="double(count_of_lower_case)" operator="lessOrEqual" value="28.0"/>
										<ScoreDistribution value="benign" recordCount="0"/>
										<ScoreDistribution value="defacement" recordCount="0"/>
										<ScoreDistribution value="malware" recordCount="0"/>
										<ScoreDistribution value="phishing" recordCount="5"/>
									</Node>
									<Node score="benign" recordCount="1">
										<SimplePredicate field="double(length_of_url)" operator="lessOrEqual" value="32.5"/>
										<ScoreDistribution value="benign" recordCount="1"/>
										<ScoreDistribution value="defacement" recordCount="0"/>
										<ScoreDistribution value="malware" recordCount="0"/>
										<ScoreDistribution value="phishing" recordCount="0"/>
									</Node>
									<Node score="phishing" recordCount="1">
										<True/>
										<ScoreDistribution value="benign" recordCount="0"/>
										<ScoreDistribution value="defacement" recordCount="0"/>
										<ScoreDistribution value="malware" recordCount="0"/>
										<ScoreDistribution value="phishing" recordCount="1"/>
									</Node>
								</Node>
								<Node>
									<SimplePredicate field="double(count_of_lower_case)" operator="lessOrEqual" value="18.5"/>
									<Node>
										<SimplePredicate field="double(number_of_letters)" operator="lessOrEqual" value="15.5"/>
										<Node>
											<SimplePredicate field="double(number_of_digits)" operator="lessOrEqual" value="2.5"/>
											<Node>
												<SimplePredicate field="double(count_of_lower_case)" operator="lessOrEqual" value="10.5"/>
												<Node>
													<SimplePredicate field="double(count_of_dot)" operator="lessOrEqual" value="1.5"/>
													<Node score="phishing" recordCount="23">
														<SimplePredicate field="double(number_of_letters)" operator="lessOrEqual" value="9.5"/>
														<ScoreDistribution value="benign" recordCount="0"/>
														<ScoreDistribution value="defacement" recordCount="0"/>
														<ScoreDistribution value="malware" recordCount="0"/>
														<ScoreDistribution value="phishing" recordCount="23"/>
													</Node>
													<Node>
														<SimplePredicate field="double(count_of_dot_info)" operator="lessOrEqual" value="0.5"/>
														<Node>
															<SimplePredicate field="double(count_of_not_alphanumeric)" operator="lessOrEqual" value="1.5"/>
															<Node score="phishing" recordCount="7">
																<SimplePredicate field="double(count_of_dotnet)" operator="lessOrEqual" value="0.5"/>
																<ScoreDistribution value="benign" recordCount="0"/>
																<ScoreDistribution value="defacement" recordCount="0"/>
																<ScoreDistribution value="malware" recordCount="1"/>
																<ScoreDistribution value="phishing" recordCount="6"/>
															</Node>
															<Node score="phishing" recordCount="1">
																<True/>
																<ScoreDistribution value="benign" recordCount="0"/>
																<ScoreDistribution value="defacement" recordCount="0"/>
																<ScoreDistribution value="malware" recordCount="0"/>
																<ScoreDistribution value="phishing" recordCount="1"/>
															</Node>
														</Node>
														<Node score="phishing" recordCount="1">
															<True/>
															<ScoreDistribution value="benign" recordCount="0"/>
															<ScoreDistribution value="defacement" recordCount="0"/>
															<ScoreDistribution value="malware" recordCount="0"/>
															<ScoreDistribution value="phishing" recordCount="1"/>
														</Node>
													</Node>
													<Node score="phishing" recordCount="2">
														<True/>
														<ScoreDistribution value="benign" recordCount="0"/>
														<ScoreDistribution value="defacement" recordCount="0"/>
														<ScoreDistribution value="malware" recordCount="0"/>
														<ScoreDistribution value="phishing" recordCount="2"/>
													</Node>
												</Node>
												<Node>
													<SimplePredicate field="double(count_of_codot)" operator="lessOrEqual" value="0.5"/>
													<Node>
														<SimplePredicate field="double(count_of_lower_case)" operator="lessOrEqual" value="8.5"/>
														<Node score="phishing" recordCount="1">
															<SimplePredicate field="double(count_of_lower_case)" operator="lessOrEqual" value="6.5"/>
															<ScoreDistribution value="benign" recordCount="0"/>
															<ScoreDistribution value="defacement" recordCount="0"/>
															<ScoreDistribution value="malware" recordCount="0"/>
															<ScoreDistribution value="phishing" recordCount="1"/>
														</Node>
														<Node score="malware" recordCount="1">
															<True/>
															<ScoreDistribution value="benign" recordCount="0"/>
															<ScoreDistribution value="defacement" recordCount="0"/>
															<ScoreDistribution value="malware" recordCount="1"/>
															<ScoreDistribution value="phishing" recordCount="0"/>
														</Node>
													</Node>
													<Node score="phishing" recordCount="1">
														<SimplePredicate field="double(length_of_url)" operator="lessOrEqual" value="13.5"/>
														<ScoreDistribution value="benign" recordCount="0"/>
														<ScoreDistribution value="defacement" recordCount="0"/>
														<ScoreDistribution value="malware" recordCount="0"/>
														<ScoreDistribution value="phishing" recordCount="1"/>
													</Node>
													<Node score="phishing" recordCount="4">
														<True/>
														<ScoreDistribution value="benign" recordCount="0"/>
														<ScoreDistribution value="defacement" recordCount="0"/>
														<ScoreDistribution value="malware" recordCount="1"/>
														<ScoreDistribution value="phishing" recordCount="3"/>
													</Node>
												</Node>
												<Node score="phishing" recordCount="5">
													<True/>
													<ScoreDistribution value="benign" recordCount="0"/>
													<ScoreDistribution value="defacement" recordCount="0"/>
													<ScoreDistribution value="malware" recordCount="0"/>
													<ScoreDistribution value="phishing" recordCount="5"/>
												</Node>
											</Node>
											<Node score="phishing" recordCount="33">
												<SimplePredicate field="double(length_of_url)" operator="lessOrEqual" value="16.5"/>
												<ScoreDistribution value="benign" recordCount="0"/>
												<ScoreDistribution value="defacement" recordCount="0"/>
												<ScoreDistribution value="malware" recordCount="0"/>
												<ScoreDistribution value="phishing" recordCount="33"/>
											</Node>
											<Node>
												<SimplePredicate field="double(length_of_url)" operator="lessOrEqual" value="18.5"/>
												<Node>
													<SimplePredicate field="double(count_of_lower_case)" operator="lessOrEqual" value="14.5"/>
													<Node score="phishing" recordCount="9">
														<SimplePredicate field="double(count_of_dot)" operator="lessOrEqual" value="1.5"/>
														<ScoreDistribution value="benign" recordCount="0"/>
														<ScoreDistribution value="defacement" recordCount="0"/>
														<ScoreDistribution value="malware" recordCount="0"/>
														<ScoreDistribution value="phishing" recordCount="9"/>
													</Node>
													<Node>
														<SimplePredicate field="double(length_of_url)" operator="lessOrEqual" value="17.5"/>
														<Node score="phishing" recordCount="4">
															<SimplePredicate field="double(count_of_dotnet)" operator="lessOrEqual" value="0.5"/>
															<ScoreDistribution value="benign" recordCount="1"/>
															<ScoreDistribution value="defacement" recordCount="0"/>
															<ScoreDistribution value="malware" recordCount="0"/>
															<ScoreDistribution value="phishing" recordCount="3"/>
														</Node>
														<Node score="phishing" recordCount="2">
															<True/>
															<ScoreDistribution value="benign" recordCount="0"/>
															<ScoreDistribution value="defacement" recordCount="0"/>
															<ScoreDistribution value="malware" recordCount="0"/>
															<ScoreDistribution value="phishing" recordCount="2"/>
														</Node>
													</Node>
													<Node score="phishing" recordCount="3">
														<True/>
														<ScoreDistribution value="benign" recordCount="0"/>
														<ScoreDistribution value="defacement" recordCount="0"/>
														<ScoreDistribution value="malware" recordCount="0"/>
														<ScoreDistribution value="phishing" recordCount="3"/>
													</Node>
												</Node>
												<Node score="malware" recordCount="2">
													<True/>
													<ScoreDistribution value="benign" recordCount="0"/>
													<ScoreDistribution value="defacement" recordCount="0"/>
													<ScoreDistribution value="malware" recordCount="1"/>
													<ScoreDistribution value="phishing" recordCount="1"/>
												</Node>
											</Node>
											<Node score="phishing" recordCount="31">
												<True/>
												<ScoreDistribution value="benign" recordCount="0"/>
												<ScoreDistribution value="defacement" recordCount="0"/>
												<ScoreDistribution value="malware" recordCount="0"/>
												<ScoreDistribution value="phishing" recordCount="31"/>
											</Node>
										</Node>
										<Node>
											<SimplePredicate field="double(number_of_letters)" operator="lessOrEqual" value="14.5"/>
											<Node>
												<SimplePredicate field="double(length_of_url)" operator="lessOrEqual" value="15.5"/>
												<Node>
													<SimplePredicate field="double(count_of_not_alphanumeric)" operator="lessOrEqual" value="1.5"/>
													<Node>
														<SimplePredicate field="double(length_of_url)" operator="lessOrEqual" value="12.5"/>
														<Node>
															<SimplePredicate field="double(number_of_letters)" operator="lessOrEqual" value="6.5"/>
															<Node>
																<SimplePredicate field="double(length_of_url)" operator="lessOrEqual" value="9.5"/>
																<Node score="phishing" recordCount="4">
																	<SimplePredicate field="double(number_of_letters)" operator="lessOrEqual" value="3.5"/>
																	<ScoreDistribution value="benign" recordCount="0"/>
																	<ScoreDistribution value="defacement" recordCount="0"/>
																	<ScoreDistribution value="malware" recordCount="0"/>
																	<ScoreDistribution value="phishing" recordCount="4"/>
																</Node>
																<Node score="malware" recordCount="2">
																	<True/>
																	<ScoreDistribution value="benign" recordCount="0"/>
																	<ScoreDistribution value="defacement" recordCount="0"/>
																	<ScoreDistribution value="malware" recordCount="1"/>
																	<ScoreDistribution value="phishing" recordCount="1"/>
																</Node>
															</Node>
															<Node score="phishing" recordCount="11">
																<True/>
																<ScoreDistribution value="benign" recordCount="0"/>
																<ScoreDistribution value="defacement" recordCount="0"/>
																<ScoreDistribution value="malware" recordCount="0"/>
																<ScoreDistribution value="phishing" recordCount="11"/>
															</Node>
														</Node>
														<Node>
															<SimplePredicate field="double(count_of_dotnet)" operator="lessOrEqual" value="0.5"/>
															<Node score="phishing" recordCount="4">
																<SimplePredicate field="double(number_of_digits)" operator="lessOrEqual" value="3.5"/>
																<ScoreDistribution value="benign" recordCount="0"/>
																<ScoreDistribution value="defacement" recordCount="0"/>
																<ScoreDistribution value="malware" recordCount="1"/>
																<ScoreDistribution value="phishing" recordCount="3"/>
															</Node>
															<Node score="phishing" recordCount="4">
																<True/>
																<ScoreDistribution value="benign" recordCount="0"/>
																<ScoreDistribution value="defacement" recordCount="0"/>
																<ScoreDistribution value="malware" recordCount="1"/>
																<ScoreDistribution value="phishing" recordCount="3"/>
															</Node>
														</Node>
														<Node score="phishing" recordCount="1">
															<True/>
															<ScoreDistribution value="benign" recordCount="0"/>
															<ScoreDistribution value="defacement" recordCount="0"/>
															<ScoreDistribution value="malware" recordCount="0"/>
															<ScoreDistribution value="phishing" recordCount="1"/>
														</Node>
													</Node>
													<Node score="phishing" recordCount="13">
														<True/>
														<ScoreDistribution value="benign" recordCount="0"/>
														<ScoreDistribution value="defacement" recordCount="0"/>
														<ScoreDistribution value="malware" recordCount="0"/>
														<ScoreDistribution value="phishing" recordCount="13"/>
													</Node>
												</Node>
												<Node>
													<SimplePredicate field="double(count_of_dotnet)" operator="lessOrEqual" value="0.5"/>
													<Node>
														<SimplePredicate field="double(count_of_lower_case)" operator="lessOrEqual" value="8.5"/>
														<Node>
															<SimplePredicate field="double(count_of_codot)" operator="lessOrEqual" value="0.5"/>
															<Node score="benign" recordCount="1">
																<SimplePredicate field="double(number_of_digits)" operator="lessOrEqual" value="3.5"/>
																<ScoreDistribution value="benign" recordCount="1"/>
																<ScoreDistribution value="defacement" recordCount="0"/>
																<ScoreDistribution value="malware" recordCount="0"/>
																<ScoreDistribution value="phishing" recordCount="0"/>
															</Node>
															<Node score="phishing" recordCount="7">
																<True/>
																<ScoreDistribution value="benign" recordCount="3"/>
																<ScoreDistribution value="defacement" recordCount="0"/>
																<ScoreDistribution value="malware" recordCount="0"/>
																<ScoreDistribution value="phishing" recordCount="4"/>
															</Node>
														</Node>
														<Node score="phishing" recordCount="2">
															<True/>
															<ScoreDistribution value="benign" recordCount="0"/>
															<ScoreDistribution value="defacement" recordCount="0"/>
															<ScoreDistribution value="malware" recordCount="0"/>
															<ScoreDistribution value="phishing" recordCount="2"/>
														</Node>
													</Node>
													<Node score="phishing" recordCount="3">
														<True/>
														<ScoreDistribution value="benign" recordCount="0"/>
														<ScoreDistribution value="defacement" recordCount="0"/>
														<ScoreDistribution value="malware" recordCount="0"/>
														<ScoreDistribution value="phishing" recordCount="3"/>
													</Node>
												</Node>
												<Node score="malware" recordCount="1">
													<True/>
													<ScoreDistribution value="benign" recordCount="0"/>
													<ScoreDistribution value="defacement" recordCount="0"/>
													<ScoreDistribution value="malware" recordCount="1"/>
													<ScoreDistribution value="phishing" recordCount="0"/>
												</Node>
											</Node>
											<Node>
												<SimplePredicate field="double(count_of_dot)" operator="lessOrEqual" value="1.5"/>
												<Node>
													<SimplePredicate field="double(number_of_digits)" operator="lessOrEqual" value="5.0"/>
													<Node>
														<SimplePredicate field="double(number_of_letters)" operator="lessOrEqual" value="13.5"/>
														<Node score="phishing" recordCount="5">
															<SimplePredicate field="double(number_of_digits)" operator="lessOrEqual" value="3.5"/>
															<ScoreDistribution value="benign" recordCount="0"/>
															<ScoreDistribution value="defacement" recordCount="0"/>
															<ScoreDistribution value="malware" recordCount="0"/>
															<ScoreDistribution value="phishing" recordCount="5"/>
														</Node>
														<Node score="malware" recordCount="1">
															<SimplePredicate field="double(number_of_letters)" operator="lessOrEqual" value="12.5"/>
															<ScoreDistribution value="benign" recordCount="0"/>
															<ScoreDistribution value="defacement" recordCount="0"/>
															<ScoreDistribution value="malware" recordCount="1"/>
															<ScoreDistribution value="phishing" recordCount="0"/>
														</Node>
														<Node score="phishing" recordCount="2">
															<True/>
															<ScoreDistribution value="benign" recordCount="0"/>
															<ScoreDistribution value="defacement" recordCount="0"/>
															<ScoreDistribution value="malware" recordCount="0"/>
															<ScoreDistribution value="phishing" recordCount="2"/>
														</Node>
													</Node>
													<Node>
														<SimplePredicate field="double(number_of_digits)" operator="lessOrEqual" value="3.5"/>
														<Node score="malware" recordCount="1">
															<SimplePredicate field="double(count_of_not_alphanumeric)" operator="lessOrEqual" value="1.5"/>
															<ScoreDistribution value="benign" recordCount="0"/>
															<ScoreDistribution value="defacement" recordCount="0"/>
															<ScoreDistribution value="malware" recordCount="1"/>
															<ScoreDistribution value="phishing" recordCount="0"/>
														</Node>
														<Node score="malware" recordCount="2">
															<True/>
															<ScoreDistribution value="benign" recordCount="0"/>
															<ScoreDistribution value="defacement" recordCount="0"/>
															<ScoreDistribution value="malware" recordCount="1"/>
															<ScoreDistribution value="phishing" recordCount="1"/>
														</Node>
													</Node>
													<Node score="phishing" recordCount="1">
														<True/>
														<ScoreDistribution value="benign" recordCount="0"/>
														<ScoreDistribution value="defacement" recordCount="0"/>
														<ScoreDistribution value="malware" recordCount="0"/>
														<ScoreDistribution value="phishing" recordCount="1"/>
													</Node>
												</Node>
												<Node score="phishing" recordCount="10">
													<True/>
													<ScoreDistribution value="benign" recordCount="0"/>
													<ScoreDistribution value="defacement" recordCount="0"/>
													<ScoreDistribution value="malware" recordCount="0"/>
													<ScoreDistribution value="phishing" recordCount="10"/>
												</Node>
											</Node>
											<Node>
												<SimplePredicate field="double(length_of_url)" operator="lessOrEqual" value="16.5"/>
												<Node>
													<SimplePredicate field="double(count_of_lower_case)" operator="lessOrEqual" value="10.5"/>
													<Node score="phishing" recordCount="11">
														<SimplePredicate field="double(number_of_letters)" operator="lessOrEqual" value="7.5"/>
														<ScoreDistribution value="benign" recordCount="0"/>
														<ScoreDistribution value="defacement" recordCount="0"/>
														<ScoreDistribution value="malware" recordCount="0"/>
														<ScoreDistribution value="phishing" recordCount="11"/>
													</Node>
													<Node score="malware" recordCount="2">
														<SimplePredicate field="double(number_of_letters)" operator="lessOrEqual" value="8.5"/>
														<ScoreDistribution value="benign" recordCount="0"/>
														<ScoreDistribution value="defacement" recordCount="0"/>
														<ScoreDistribution value="malware" recordCount="1"/>
														<ScoreDistribution value="phishing" recordCount="1"/>
													</Node>
													<Node score="phishing" recordCount="6">
														<True/>
														<ScoreDistribution value="benign" recordCount="0"/>
														<ScoreDistribution value="defacement" recordCount="0"/>
														<ScoreDistribution value="malware" recordCount="0"/>
														<ScoreDistribution value="phishing" recordCount="6"/>
													</Node>
												</Node>
												<Node score="benign" recordCount="2">
													<True/>
													<ScoreDistribution value="benign" recordCount="1"/>
													<ScoreDistribution value="defacement" recordCount="0"/>
													<ScoreDistribution value="malware" recordCount="0"/>
													<ScoreDistribution value="phishing" recordCount="1"/>
												</Node>
											</Node>
											<Node score="phishing" recordCount="39">
												<SimplePredicate field="double(length_of_url)" operator="lessOrEqual" value="18.5"/>
												<ScoreDistribution value="benign" recordCount="0"/>
												<ScoreDistribution value="defacement" recordCount="0"/>
												<ScoreDistribution value="malware" recordCount="0"/>
												<ScoreDistribution value="phishing" recordCount="39"/>
											</Node>
											<Node>
												<SimplePredicate field="double(count_of_lower_case)" operator="lessOrEqual" value="11.5"/>
												<Node score="phishing" recordCount="10">
													<SimplePredicate field="double(number_of_digits)" operator="lessOrEqual" value="6.5"/>
													<ScoreDistribution value="benign" recordCount="0"/>
													<ScoreDistribution value="defacement" recordCount="0"/>
													<ScoreDistribution value="malware" recordCount="1"/>
													<ScoreDistribution value="phishing" recordCount="9"/>
												</Node>
												<Node score="phishing" recordCount="5">
													<True/>
													<ScoreDistribution value="benign" recordCount="0"/>
													<ScoreDistribution value="defacement" recordCount="0"/>
													<ScoreDistribution value="malware" recordCount="0"/>
													<ScoreDistribution value="phishing" recordCount="5"/>
												</Node>
											</Node>
											<Node score="phishing" recordCount="22">
												<True/>
												<ScoreDistribution value="benign" recordCount="0"/>
												<ScoreDistribution value="defacement" recordCount="0"/>
												<ScoreDistribution value="malware" recordCount="0"/>
												<ScoreDistribution value="phishing" recordCount="22"/>
											</Node>
										</Node>
										<Node>
											<SimplePredicate field="double(count_of_dotnet)" operator="lessOrEqual" value="0.5"/>
											<Node>
												<SimplePredicate field="double(length_of_url)" operator="lessOrEqual" value="20.5"/>
												<Node score="phishing" recordCount="1">
													<SimplePredicate field="double(length_of_url)" operator="lessOrEqual" value="19.5"/>
													<ScoreDistribution value="benign" recordCount="0"/>
													<ScoreDistribution value="defacement" recordCount="0"/>
													<ScoreDistribution value="malware" recordCount="0"/>
													<ScoreDistribution value="phishing" recordCount="1"/>
												</Node>
												<Node>
													<SimplePredicate field="double(count_of_dot_info)" operator="lessOrEqual" value="0.5"/>
													<Node>
														<SimplePredicate field="double(count_of_codot)" operator="lessOrEqual" value="0.5"/>
														<Node score="malware" recordCount="1">
															<SimplePredicate field="double(number_of_digits)" operator="lessOrEqual" value="3.5"/>
															<ScoreDistribution value="benign" recordCount="0"/>
															<ScoreDistribution value="defacement" recordCount="0"/>
															<ScoreDistribution value="malware" recordCount="1"/>
															<ScoreDistribution value="phishing" recordCount="0"/>
														</Node>
														<Node score="malware" recordCount="2">
															<True/>
															<ScoreDistribution value="benign" recordCount="0"/>
															<ScoreDistribution value="defacement" recordCount="0"/>
															<ScoreDistribution value="malware" recordCount="1"/>
															<ScoreDistribution value="phishing" recordCount="1"/>
														</Node>
													</Node>
													<Node score="phishing" recordCount="1">
														<True/>
														<ScoreDistribution value="benign" recordCount="0"/>
														<ScoreDistribution value="defacement" recordCount="0"/>
														<ScoreDistribution value="malware" recordCount="0"/>
														<ScoreDistribution value="phishing" recordCount="1"/>
													</Node>
												</Node>
												<Node score="phishing" recordCount="1">
													<True/>
													<ScoreDistribution value="benign" recordCount="0"/>
													<ScoreDistribution value="defacement" recordCount="0"/>
													<ScoreDistribution value="malware" recordCount="0"/>
													<ScoreDistribution value="phishing" recordCount="1"/>
												</Node>
											</Node>
											<Node score="phishing" recordCount="3">
												<True/>
												<ScoreDistribution value="benign" recordCount="0"/>
												<ScoreDistribution value="defacement" recordCount="0"/>
												<ScoreDistribution value="malware" recordCount="0"/>
												<ScoreDistribution value="phishing" recordCount="3"/>
											</Node>
										</Node>
										<Node score="benign" recordCount="2">
											<True/>
											<ScoreDistribution value="benign" recordCount="2"/>
											<ScoreDistribution value="defacement" recordCount="0"/>
											<ScoreDistribution value="malware" recordCount="0"/>
											<ScoreDistribution value="phishing" recordCount="0"/>
										</Node>
									</Node>
									<Node>
										<SimplePredicate field="double(count_of_dotnet)" operator="lessOrEqual" value="0.5"/>
										<Node>
											<SimplePredicate field="double(count_of_dot)" operator="lessOrEqual" value="1.5"/>
											<Node>
												<SimplePredicate field="double(number_of_digits)" operator="lessOrEqual" value="4.5"/>
												<Node score="phishing" recordCount="9">
													<SimplePredicate field="double(length_of_url)" operator="lessOrEqual" value="19.5"/>
													<ScoreDistribution value="benign" recordCount="0"/>
													<ScoreDistribution value="defacement" recordCount="0"/>
													<ScoreDistribution value="malware" recordCount="1"/>
													<ScoreDistribution value="phishing" recordCount="8"/>
												</Node>
												<Node>
													<SimplePredicate field="double(number_of_letters)" operator="lessOrEqual" value="16.5"/>
													<Node>
														<SimplePredicate field="double(count_of_not_alphanumeric)" operator="lessOrEqual" value="1.5"/>
														<Node score="phishing" recordCount="1">
															<SimplePredicate field="double(number_of_digits)" operator="lessOrEqual" value="3.5"/>
															<ScoreDistribution value="benign" recordCount="0"/>
															<ScoreDistribution value="defacement" recordCount="0"/>
															<ScoreDistribution value="malware" recordCount="0"/>
															<ScoreDistribution value="phishing" recordCount="1"/>
														</Node>
														<Node score="phishing" recordCount="4">
															<True/>
															<ScoreDistribution value="benign" recordCount="0"/>
															<ScoreDistribution value="defacement" recordCount="0"/>
															<ScoreDistribution value="malware" recordCount="1"/>
															<ScoreDistribution value="phishing" recordCount="3"/>
														</Node>
													</Node>
													<Node score="malware" recordCount="3">
														<True/>
														<ScoreDistribution value="benign" recordCount="0"/>
														<ScoreDistribution value="defacement" recordCount="0"/>
														<ScoreDistribution value="malware" recordCount="3"/>
														<ScoreDistribution value="phishing" recordCount="0"/>
													</Node>
												</Node>
												<Node>
													<SimplePredicate field="double(count_of_not_alphanumeric)" operator="lessOrEqual" value="1.5"/>
													<Node score="phishing" recordCount="1">
														<SimplePredicate field="double(length_of_url)" operator="lessOrEqual" value="20.5"/>
														<ScoreDistribution value="benign" recordCount="0"/>
														<ScoreDistribution value="defacement" recordCount="0"/>
														<ScoreDistribution value="malware" recordCount="0"/>
														<ScoreDistribution value="phishing" recordCount="1"/>
													</Node>
													<Node score="phishing" recordCount="10">
														<SimplePredicate field="double(number_of_digits)" operator="lessOrEqual" value="3.5"/>
														<ScoreDistribution value="benign" recordCount="0"/>
														<ScoreDistribution value="defacement" recordCount="0"/>
														<ScoreDistribution value="malware" recordCount="3"/>
														<ScoreDistribution value="phishing" recordCount="7"/>
													</Node>
													<Node score="malware" recordCount="2">
														<True/>
														<ScoreDistribution value="benign" recordCount="0"/>
														<ScoreDistribution value="defacement" recordCount="0"/>
														<ScoreDistribution value="malware" recordCount="1"/>
														<ScoreDistribution value="phishing" recordCount="1"/>
													</Node>
												</Node>
												<Node score="phishing" recordCount="9">
													<True/>
													<ScoreDistribution value="benign" recordCount="0"/>
													<ScoreDistribution value="defacement" recordCount="0"/>
													<ScoreDistribution value="malware" recordCount="0"/>
													<ScoreDistribution value="phishing" recordCount="9"/>
												</Node>
											</Node>
											<Node score="malware" recordCount="2">
												<SimplePredicate field="double(count_of_dot_info)" operator="lessOrEqual" value="0.5"/>
												<ScoreDistribution value="benign" recordCount="0"/>
												<ScoreDistribution value="defacement" recordCount="0"/>
												<ScoreDistribution value="malware" recordCount="2"/>
												<ScoreDistribution value="phishing" recordCount="0"/>
											</Node>
											<Node score="phishing" recordCount="1">
												<True/>
												<ScoreDistribution value="benign" recordCount="0"/>
												<ScoreDistribution value="defacement" recordCount="0"/>
												<ScoreDistribution value="malware" recordCount="0"/>
												<ScoreDistribution value="phishing" recordCount="1"/>
											</Node>
										</Node>
										<Node score="phishing" recordCount="28">
											<SimplePredicate field="double(count_of_dot_info)" operator="lessOrEqual" value="0.5"/>
											<ScoreDistribution value="benign" recordCount="0"/>
											<ScoreDistribution value="defacement" recordCount="0"/>
											<ScoreDistribution value="malware" recordCount="0"/>
											<ScoreDistribution value="phishing" recordCount="28"/>
										</Node>
										<Node score="malware" recordCount="1">
											<True/>
											<ScoreDistribution value="benign" recordCount="0"/>
											<ScoreDistribution value="defacement" recordCount="0"/>
											<ScoreDistribution value="malware" recordCount="1"/>
											<ScoreDistribution value="phishing" recordCount="0"/>
										</Node>
									</Node>
									<Node>
										<SimplePredicate field="double(number_of_letters)" operator="lessOrEqual" value="17.5"/>
										<Node>
											<SimplePredicate field="double(count_of_lower_case)" operator="lessOrEqual" value="16.5"/>
											<Node score="benign" recordCount="2">
												<SimplePredicate field="double(length_of_url)" operator="lessOrEqual" value="22.5"/>
												<ScoreDistribution value="benign" recordCount="1"/>
												<ScoreDistribution value="defacement" recordCount="0"/>
												<ScoreDistribution value="malware" recordCount="0"/>
												<ScoreDistribution value="phishing" recordCount="1"/>
											</Node>
											<Node score="phishing" recordCount="1">
												<True/>
												<ScoreDistribution value="benign" recordCount="0"/>
												<ScoreDistribution value="defacement" recordCount="0"/>
												<ScoreDistribution value="malware" recordCount="0"/>
												<ScoreDistribution value="phishing" recordCount="1"/>
											</Node>
										</Node>
										<Node score="benign" recordCount="2">
											<True/>
											<ScoreDistribution value="benign" recordCount="2"/>
											<ScoreDistribution value="defacement" recordCount="0"/>
											<ScoreDistribution value="malware" recordCount="0"/>
											<ScoreDistribution value="phishing" recordCount="0"/>
										</Node>
									</Node>
									<Node score="phishing" recordCount="2">
										<True/>
										<ScoreDistribution value="benign" recordCount="0"/>
										<ScoreDistribution value="defacement" recordCount="0"/>
										<ScoreDistribution value="malware" recordCount="0"/>
										<ScoreDistribution value="phishing" recordCount="2"/>
									</Node>
								</Node>
								<Node>
									<SimplePredicate field="double(count_of_not_alphanumeric)" operator="lessOrEqual" value="1.5"/>
									<Node>
										<SimplePredicate field="double(count_of_dot_info)" operator="lessOrEqual" value="0.5"/>
										<Node>
											<SimplePredicate field="double(number_of_digits)" operator="lessOrEqual" value="3.5"/>
											<Node score="malware" recordCount="4">
												<SimplePredicate field="double(length_of_url)" operator="lessOrEqual" value="22.5"/>
												<ScoreDistribution value="benign" recordCount="0"/>
												<ScoreDistribution value="defacement" recordCount="0"/>
												<ScoreDistribution value="malware" recordCount="4"/>
												<ScoreDistribution value="phishing" recordCount="0"/>
											</Node>
											<Node>
												<SimplePredicate field="double(length_of_url)" operator="lessOrEqual" value="23.5"/>
												<Node score="phishing" recordCount="1">
													<SimplePredicate field="double(count_of_lower_case)" operator="lessOrEqual" value="19.5"/>
													<ScoreDistribution value="benign" recordCount="0"/>
													<ScoreDistribution value="defacement" recordCount="0"/>
													<ScoreDistribution value="malware" recordCount="0"/>
													<ScoreDistribution value="phishing" recordCount="1"/>
												</Node>
												<Node score="phishing" recordCount="3">
													<True/>
													<ScoreDistribution value="benign" recordCount="0"/>
													<ScoreDistribution value="defacement" recordCount="0"/>
													<ScoreDistribution value="malware" recordCount="1"/>
													<ScoreDistribution value="phishing" recordCount="2"/>
												</Node>
											</Node>
											<Node>
												<SimplePredicate field="double(number_of_letters)" operator="lessOrEqual" value="26.0"/>
												<Node score="malware" recordCount="5">
													<SimplePredicate field="double(number_of_digits)" operator="lessOrEqual" value="2.5"/>
													<ScoreDistribution value="benign" recordCount="0"/>
													<ScoreDistribution value="defacement" recordCount="0"/>
													<ScoreDistribution value="malware" recordCount="5"/>
													<ScoreDistribution value="phishing" recordCount="0"/>
												</Node>
												<Node>
													<SimplePredicate field="double(length_of_url)" operator="lessOrEqual" value="28.5"/>
													<Node score="malware" recordCount="7">
														<SimplePredicate field="double(length_of_url)" operator="lessOrEqual" value="27.0"/>
														<ScoreDistribution value="benign" recordCount="0"/>
														<ScoreDistribution value="defacement" recordCount="0"/>
														<ScoreDistribution value="malware" recordCount="5"/>
														<ScoreDistribution value="phishing" recordCount="2"/>
													</Node>
													<Node score="phishing" recordCount="1">
														<True/>
														<ScoreDistribution value="benign" recordCount="0"/>
														<ScoreDistribution value="defacement" recordCount="0"/>
														<ScoreDistribution value="malware" recordCount="0"/>
														<ScoreDistribution value="phishing" recordCount="1"/>
													</Node>
												</Node>
												<Node score="malware" recordCount="1">
													<True/>
													<ScoreDistribution value="benign" recordCount="0"/>
													<ScoreDistribution value="defacement" recordCount="0"/>
													<ScoreDistribution value="malware" recordCount="1"/>
													<ScoreDistribution value="phishing" recordCount="0"/>
												</Node>
											</Node>
											<Node score="phishing" recordCount="3">
												<SimplePredicate field="double(number_of_digits)" operator="lessOrEqual" value="2.5"/>
												<ScoreDistribution value="benign" recordCount="0"/>
												<ScoreDistribution value="defacement" recordCount="0"/>
												<ScoreDistribution value="malware" recordCount="0"/>
												<ScoreDistribution value="phishing" recordCount="3"/>
											</Node>
											<Node score="malware" recordCount="2">
												<True/>
												<ScoreDistribution value="benign" recordCount="0"/>
												<ScoreDistribution value="defacement" recordCount="0"/>
												<ScoreDistribution value="malware" recordCount="2"/>
												<ScoreDistribution value="phishing" recordCount="0"/>
											</Node>
										</Node>
										<Node score="phishing" recordCount="1">
											<SimplePredicate field="double(length_of_url)" operator="lessOrEqual" value="24.5"/>
											<ScoreDistribution value="benign" recordCount="0"/>
											<ScoreDistribution value="defacement" recordCount="0"/>
											<ScoreDistribution value="malware" recordCount="0"/>
											<ScoreDistribution value="phishing" recordCount="1"/>
										</Node>
										<Node score="malware" recordCount="14">
											<True/>
											<ScoreDistribution value="benign" recordCount="0"/>
											<ScoreDistribution value="defacement" recordCount="0"/>
											<ScoreDistribution value="malware" recordCount="14"/>
											<ScoreDistribution value="phishing" recordCount="0"/>
										</Node>
									</Node>
									<Node score="phishing" recordCount="2">
										<True/>
										<ScoreDistribution value="benign" recordCount="0"/>
										<ScoreDistribution value="defacement" recordCount="0"/>
										<ScoreDistribution value="malware" recordCount="0"/>
										<ScoreDistribution value="phishing" recordCount="2"/>
									</Node>
								</Node>
								<Node>
									<SimplePredicate field="double(length_of_url)" operator="lessOrEqual" value="25.5"/>
									<Node>
										<SimplePredicate field="double(count_of_dotnet)" operator="lessOrEqual" value="0.5"/>
										<Node score="phishing" recordCount="4">
											<SimplePredicate field="double(number_of_letters)" operator="lessOrEqual" value="20.5"/>
											<ScoreDistribution value="benign" recordCount="0"/>
											<ScoreDistribution value="defacement" recordCount="0"/>
											<ScoreDistribution value="malware" recordCount="0"/>
											<ScoreDistribution value="phishing" recordCount="4"/>
										</Node>
										<Node score="phishing" recordCount="5">
											<True/>
											<ScoreDistribution value="benign" recordCount="0"/>
											<ScoreDistribution value="defacement" recordCount="0"/>
											<ScoreDistribution value="malware" recordCount="2"/>
											<ScoreDistribution value="phishing" recordCount="3"/>
										</Node>
									</Node>
									<Node score="phishing" recordCount="1">
										<SimplePredicate field="double(number_of_digits)" operator="lessOrEqual" value="2.5"/>
										<ScoreDistribution value="benign" recordCount="0"/>
										<ScoreDistribution value="defacement" recordCount="0"/>
										<ScoreDistribution value="malware" recordCount="0"/>
										<ScoreDistribution value="phishing" recordCount="1"/>
									</Node>
									<Node score="benign" recordCount="1">
										<True/>
										<ScoreDistribution value="benign" recordCount="1"/>
										<ScoreDistribution value="defacement" recordCount="0"/>
										<ScoreDistribution value="malware" recordCount="0"/>
										<ScoreDistribution value="phishing" recordCount="0"/>
									</Node>
								</Node>
								<Node>
									<SimplePredicate field="double(number_of_digits)" operator="lessOrEqual" value="2.5"/>
									<Node score="phishing" recordCount="7">
										<SimplePredicate field="double(number_of_letters)" operator="lessOrEqual" value="25.5"/>
										<ScoreDistribution value="benign" recordCount="0"/>
										<ScoreDistribution value="defacement" recordCount="0"/>
										<ScoreDistribution value="malware" recordCount="0"/>
										<ScoreDistribution value="phishing" recordCount="7"/>
									</Node>
									<Node score="phishing" recordCount="3">
										<SimplePredicate field="double(length_of_url)" operator="lessOrEqual" value="30.5"/>
										<ScoreDistribution value="benign" recordCount="1"/>
										<ScoreDistribution value="defacement" recordCount="0"/>
										<ScoreDistribution value="malware" recordCount="0"/>
										<ScoreDistribution value="phishing" recordCount="2"/>
									</Node>
									<Node score="phishing" recordCount="6">
										<True/>
										<ScoreDistribution value="benign" recordCount="0"/>
										<ScoreDistribution value="defacement" recordCount="0"/>
